<?xml version="1.0"?>
<opencv_storage>
<cascade>
  <stageType>BOOST</stageType>
  <featureType>HAAR</featureType>
  <height>38</height>
  <width>38</width>
  <stageParams>
    <boostType>GAB</boostType>
    <minHitRate>9.9500000476837158e-01</minHitRate>
    <maxFalseAlarm>5.0000000000000000e-01</maxFalseAlarm>
    <weightTrimRate>9.4999998807907104e-01</weightTrimRate>
    <maxDepth>1</maxDepth>
    <maxWeakCount>100</maxWeakCount></stageParams>
  <featureParams>
    <maxCatCount>0</maxCatCount>
    <featSize>1</featSize>
    <mode>BASIC</mode></featureParams>
  <stageNum>4</stageNum>
  <stages>
    <!-- stage 0 -->
    <_>
      <maxWeakCount>2</maxWeakCount>
      <stageThreshold>-7.0541149377822876e-01</stageThreshold>
      <weakClassifiers>
        <_>
          <internalNodes>
            0 -1 2 4.1979245841503143e-02</internalNodes>
          <leafValues>
            -8.7936508655548096e-01 2.5490197539329529e-01</leafValues></_>
        <_>
          <internalNodes>
            0 -1 7 2.8779068961739540e-03</internalNodes>
          <leafValues>
            1.7395357787609100e-01 -1.</leafValues></_></weakClassifiers></_>
    <!-- stage 1 -->
    <_>
      <maxWeakCount>3</maxWeakCount>
      <stageThreshold>-1.4428777694702148e+00</stageThreshold>
      <weakClassifiers>
        <_>
          <internalNodes>
            0 -1 3 2.4787742644548416e-02</internalNodes>
          <leafValues>
            -8.8923078775405884e-01 6.0975611209869385e-01</leafValues></_>
        <_>
          <internalNodes>
            0 -1 8 -3.5643642768263817e-03</internalNodes>
          <leafValues>
            3.3743897080421448e-01 -8.2466834783554077e-01</leafValues></_>
        <_>
          <internalNodes>
            0 -1 0 -4.6428296627709642e-05</internalNodes>
          <leafValues>
            -8.9108598232269287e-01 3.8763737678527832e-01</leafValues></_></weakClassifiers></_>
    <!-- stage 2 -->
    <_>
      <maxWeakCount>3</maxWeakCount>
      <stageThreshold>-7.3021179437637329e-01</stageThreshold>
      <weakClassifiers>
        <_>
          <internalNodes>
            0 -1 5 2.1008048206567764e-02</internalNodes>
          <leafValues>
            -8.5840708017349243e-01 1.</leafValues></_>
        <_>
          <internalNodes>
            0 -1 4 2.5627608411014080e-03</internalNodes>
          <leafValues>
            -7.2555047273635864e-01 1.</leafValues></_>
        <_>
          <internalNodes>
            0 -1 6 -3.6691140383481979e-02</internalNodes>
          <leafValues>
            8.5374569892883301e-01 -5.0176084041595459e-01</leafValues></_></weakClassifiers></_>
    <!-- stage 3 -->
    <_>
      <maxWeakCount>1</maxWeakCount>
      <stageThreshold>1.</stageThreshold>
      <weakClassifiers>
        <_>
          <internalNodes>
            0 -1 1 -1.0558530688285828e-01</internalNodes>
          <leafValues>
            -1. 1.</leafValues></_></weakClassifiers></_></stages>
  <features>
    <_>
      <rects>
        <_>
          0 6 2 4 -1.</_>
        <_>
          0 8 2 2 2.</_></rects>
      <tilted>0</tilted></_>
    <_>
      <rects>
        <_>
          14 10 24 12 -1.</_>
        <_>
          22 10 8 12 3.</_></rects>
      <tilted>0</tilted></_>
    <_>
      <rects>
        <_>
          16 0 14 22 -1.</_>
        <_>
          23 0 7 22 2.</_></rects>
      <tilted>0</tilted></_>
    <_>
      <rects>
        <_>
          21 10 10 16 -1.</_>
        <_>
          26 10 5 16 2.</_></rects>
      <tilted>0</tilted></_>
    <_>
      <rects>
        <_>
          21 15 6 8 -1.</_>
        <_>
          21 15 3 4 2.</_>
        <_>
          24 19 3 4 2.</_></rects>
      <tilted>0</tilted></_>
    <_>
      <rects>
        <_>
          23 16 10 19 -1.</_>
        <_>
          28 16 5 19 2.</_></rects>
      <tilted>0</tilted></_>
    <_>
      <rects>
        <_>
          24 0 5 36 -1.</_>
        <_>
          24 12 5 12 3.</_></rects>
      <tilted>0</tilted></_>
    <_>
      <rects>
        <_>
          24 1 14 2 -1.</_>
        <_>
          24 1 7 1 2.</_>
        <_>
          31 2 7 1 2.</_></rects>
      <tilted>0</tilted></_>
    <_>
      <rects>
        <_>
          31 0 6 38 -1.</_>
        <_>
          31 0 3 19 2.</_>
        <_>
          34 19 3 19 2.</_></rects>
      <tilted>0</tilted></_></features></cascade>
</opencv_storage>
